digraph Tree {
node [shape=box, style="filled, rounded", color="black", fontname=helvetica] ;
edge [fontname=helvetica] ;
0 [label="age <= 30.5\ngini = 0.714\nsamples = 14\nvalue = [3, 6, 1, 3, 1]\nclass = Classical", fillcolor="#dbf8c9"] ;
1 [label="age <= 25.5\ngini = 0.688\nsamples = 8\nvalue = [3, 0, 1, 3, 1]\nclass = Acoustic", fillcolor="#ffffff"] ;
0 -> 1 [labeldistance=2.5, labelangle=45, headlabel="True"] ;
2 [label="gender <= 0.5\ngini = 0.375\nsamples = 4\nvalue = [0, 0, 1, 3, 0]\nclass = HipHop", fillcolor="#7d7bee"] ;
1 -> 2 ;
3 [label="age <= 22.0\ngini = 0.5\nsamples = 2\nvalue = [0, 0, 1, 1, 0]\nclass = Dance", fillcolor="#ffffff"] ;
2 -> 3 ;
4 [label="gini = 0.0\nsamples = 1\nvalue = [0, 0, 1, 0, 0]\nclass = Dance", fillcolor="#39e5c5"] ;
3 -> 4 ;
5 [label="gini = 0.0\nsamples = 1\nvalue = [0, 0, 0, 1, 0]\nclass = HipHop", fillcolor="#3c39e5"] ;
3 -> 5 ;
6 [label="gini = 0.0\nsamples = 2\nvalue = [0, 0, 0, 2, 0]\nclass = HipHop", fillcolor="#3c39e5"] ;
2 -> 6 ;
7 [label="gender <= 0.5\ngini = 0.375\nsamples = 4\nvalue = [3, 0, 0, 0, 1]\nclass = Acoustic", fillcolor="#eeab7b"] ;
1 -> 7 ;
8 [label="gini = 0.0\nsamples = 3\nvalue = [3, 0, 0, 0, 0]\nclass = Acoustic", fillcolor="#e58139"] ;
7 -> 8 ;
9 [label="gini = 0.0\nsamples = 1\nvalue = [0, 0, 0, 0, 1]\nclass = Jazz", fillcolor="#e539c0"] ;
7 -> 9 ;
10 [label="gini = 0.0\nsamples = 6\nvalue = [0, 6, 0, 0, 0]\nclass = Classical", fillcolor="#7be539"] ;
0 -> 10 [labeldistance=2.5, labelangle=-45, headlabel="False"] ;
}